<GAP_2022_5_31_60_17_41_58_122>
<Potential label="GAP_2022_5_31_60_17_41_58_122" init_args="IP GAP label=GAP_2022_5_31_60_17_41_58_122"/>
<GAP_params label="GAP_2022_5_31_60_17_41_58_122" gap_version="1631710424">
  <GAP_data do_core="F">
    <e0 Z="1" value=".00000000000000000E+000"/>
    <e0 Z="2" value=".00000000000000000E+000"/>
    <e0 Z="3" value=".00000000000000000E+000"/>
    <e0 Z="4" value=".00000000000000000E+000"/>
    <e0 Z="5" value=".00000000000000000E+000"/>
    <e0 Z="6" value=".00000000000000000E+000"/>
    <e0 Z="7" value=".00000000000000000E+000"/>
    <e0 Z="8" value=".00000000000000000E+000"/>
    <e0 Z="9" value=".00000000000000000E+000"/>
    <e0 Z="10" value=".00000000000000000E+000"/>
    <e0 Z="11" value=".00000000000000000E+000"/>
    <e0 Z="12" value=".00000000000000000E+000"/>
    <e0 Z="13" value=".00000000000000000E+000"/>
    <e0 Z="14" value=".00000000000000000E+000"/>
    <e0 Z="15" value=".00000000000000000E+000"/>
    <e0 Z="16" value=".00000000000000000E+000"/>
    <e0 Z="17" value=".00000000000000000E+000"/>
    <e0 Z="18" value=".00000000000000000E+000"/>
    <e0 Z="19" value=".00000000000000000E+000"/>
    <e0 Z="20" value=".00000000000000000E+000"/>
    <e0 Z="21" value=".00000000000000000E+000"/>
    <e0 Z="22" value=".00000000000000000E+000"/>
    <e0 Z="23" value=".00000000000000000E+000"/>
    <e0 Z="24" value=".00000000000000000E+000"/>
    <e0 Z="25" value=".00000000000000000E+000"/>
    <e0 Z="26" value=".00000000000000000E+000"/>
    <e0 Z="27" value=".00000000000000000E+000"/>
    <e0 Z="28" value=".00000000000000000E+000"/>
    <e0 Z="29" value=".00000000000000000E+000"/>
    <e0 Z="30" value=".00000000000000000E+000"/>
    <e0 Z="31" value=".00000000000000000E+000"/>
    <e0 Z="32" value=".00000000000000000E+000"/>
    <e0 Z="33" value=".00000000000000000E+000"/>
    <e0 Z="34" value=".00000000000000000E+000"/>
    <e0 Z="35" value=".00000000000000000E+000"/>
    <e0 Z="36" value=".00000000000000000E+000"/>
    <e0 Z="37" value=".00000000000000000E+000"/>
    <e0 Z="38" value=".00000000000000000E+000"/>
    <e0 Z="39" value=".00000000000000000E+000"/>
    <e0 Z="40" value=".00000000000000000E+000"/>
    <e0 Z="41" value=".00000000000000000E+000"/>
    <e0 Z="42" value=".00000000000000000E+000"/>
    <e0 Z="43" value=".00000000000000000E+000"/>
    <e0 Z="44" value=".00000000000000000E+000"/>
    <e0 Z="45" value=".00000000000000000E+000"/>
    <e0 Z="46" value=".00000000000000000E+000"/>
    <e0 Z="47" value=".00000000000000000E+000"/>
    <e0 Z="48" value=".00000000000000000E+000"/>
    <e0 Z="49" value=".00000000000000000E+000"/>
    <e0 Z="50" value=".00000000000000000E+000"/>
    <e0 Z="51" value=".00000000000000000E+000"/>
    <e0 Z="52" value=".00000000000000000E+000"/>
    <e0 Z="53" value=".00000000000000000E+000"/>
    <e0 Z="54" value=".00000000000000000E+000"/>
    <e0 Z="55" value=".00000000000000000E+000"/>
    <e0 Z="56" value=".00000000000000000E+000"/>
    <e0 Z="57" value=".00000000000000000E+000"/>
    <e0 Z="58" value=".00000000000000000E+000"/>
    <e0 Z="59" value=".00000000000000000E+000"/>
    <e0 Z="60" value=".00000000000000000E+000"/>
    <e0 Z="61" value=".00000000000000000E+000"/>
    <e0 Z="62" value=".00000000000000000E+000"/>
    <e0 Z="63" value=".00000000000000000E+000"/>
    <e0 Z="64" value=".00000000000000000E+000"/>
    <e0 Z="65" value=".00000000000000000E+000"/>
    <e0 Z="66" value=".00000000000000000E+000"/>
    <e0 Z="67" value=".00000000000000000E+000"/>
    <e0 Z="68" value=".00000000000000000E+000"/>
    <e0 Z="69" value=".00000000000000000E+000"/>
    <e0 Z="70" value=".00000000000000000E+000"/>
    <e0 Z="71" value=".00000000000000000E+000"/>
    <e0 Z="72" value=".00000000000000000E+000"/>
    <e0 Z="73" value=".00000000000000000E+000"/>
    <e0 Z="74" value=".00000000000000000E+000"/>
    <e0 Z="75" value=".00000000000000000E+000"/>
    <e0 Z="76" value=".00000000000000000E+000"/>
    <e0 Z="77" value=".00000000000000000E+000"/>
    <e0 Z="78" value=".00000000000000000E+000"/>
    <e0 Z="79" value=".00000000000000000E+000"/>
    <e0 Z="80" value=".00000000000000000E+000"/>
    <e0 Z="81" value=".00000000000000000E+000"/>
    <e0 Z="82" value=".00000000000000000E+000"/>
    <e0 Z="83" value=".00000000000000000E+000"/>
    <e0 Z="84" value=".00000000000000000E+000"/>
    <e0 Z="85" value=".00000000000000000E+000"/>
    <e0 Z="86" value=".00000000000000000E+000"/>
    <e0 Z="87" value=".00000000000000000E+000"/>
    <e0 Z="88" value=".00000000000000000E+000"/>
    <e0 Z="89" value=".00000000000000000E+000"/>
    <e0 Z="90" value=".00000000000000000E+000"/>
    <e0 Z="91" value=".00000000000000000E+000"/>
    <e0 Z="92" value=".00000000000000000E+000"/>
    <e0 Z="93" value=".00000000000000000E+000"/>
    <e0 Z="94" value=".00000000000000000E+000"/>
    <e0 Z="95" value=".00000000000000000E+000"/>
    <e0 Z="96" value=".00000000000000000E+000"/>
    <e0 Z="97" value=".00000000000000000E+000"/>
    <e0 Z="98" value=".00000000000000000E+000"/>
    <e0 Z="99" value=".00000000000000000E+000"/>
    <e0 Z="100" value=".00000000000000000E+000"/>
    <e0 Z="101" value=".00000000000000000E+000"/>
    <e0 Z="102" value=".00000000000000000E+000"/>
    <e0 Z="103" value=".00000000000000000E+000"/>
    <e0 Z="104" value=".00000000000000000E+000"/>
    <e0 Z="105" value=".00000000000000000E+000"/>
    <e0 Z="106" value=".00000000000000000E+000"/>
    <e0 Z="107" value=".00000000000000000E+000"/>
    <e0 Z="108" value=".00000000000000000E+000"/>
    <e0 Z="109" value=".00000000000000000E+000"/>
    <e0 Z="110" value=".00000000000000000E+000"/>
    <e0 Z="111" value=".00000000000000000E+000"/>
    <e0 Z="112" value=".00000000000000000E+000"/>
    <e0 Z="113" value=".00000000000000000E+000"/>
    <e0 Z="114" value=".00000000000000000E+000"/>
    <e0 Z="115" value=".00000000000000000E+000"/>
    <e0 Z="116" value=".00000000000000000E+000"/>
    <e0 Z="117" value=".00000000000000000E+000"/>
    <e0 Z="118" value=".00000000000000000E+000"/>
  </GAP_data>
  <gpSparse label="GAP_2022_5_31_60_17_41_58_122" n_coordinate="3">
    <gpCoordinates label="GAP_2022_5_31_60_17_41_58_1221" dimensions="1" signal_variance=".50000000000000000" signal_mean=".00000000000000000E+000" sparsified="T" n_permutations="1" covariance_type="1" n_sparseX="10" sparseX_filename="GAP.xml.sparseX.GAP_2022_5_31_60_17_41_58_1221" sparseX_md5sum="de5a45b5151d8e7b2b47b05b1cb8a450">
      <theta>  0.10000000000000000E+001 </theta>
      <descriptor>distance_2b cutoff=4.0 covariance_type=ard_se delta=0.5 theta_uniform=1.0 sparse_method=uniform               n_sparse=10 Z1=13 Z2=13</descriptor>
      <permutation i="1">1  </permutation>
      <sparseX i="1" alpha="52039.262185040847" sparseCutoff="1.0000000000000000"/>
      <sparseX i="2" alpha="-300089.81559330423" sparseCutoff="1.0000000000000000"/>
      <sparseX i="3" alpha="441531.88589647639" sparseCutoff="1.0000000000000000"/>
      <sparseX i="4" alpha="-396438.03323247744" sparseCutoff="1.0000000000000000"/>
      <sparseX i="5" alpha="91794.928815913983" sparseCutoff="1.0000000000000000"/>
      <sparseX i="6" alpha="265861.27719497005" sparseCutoff="1.0000000000000000"/>
      <sparseX i="7" alpha="-164831.83814955791" sparseCutoff="1.0000000000000000"/>
      <sparseX i="8" alpha="184741.79869127140" sparseCutoff=".31654807116676664"/>
      <sparseX i="9" alpha="-187817.26165696949" sparseCutoff=".14878293748536731"/>
      <sparseX i="10" alpha="-20380.212587839906" sparseCutoff="1.0000000000000000"/>
    </gpCoordinates>
    <gpCoordinates label="GAP_2022_5_31_60_17_41_58_1222" dimensions="1" signal_variance=".50000000000000000" signal_mean=".00000000000000000E+000" sparsified="T" n_permutations="1" covariance_type="1" n_sparseX="10" sparseX_filename="GAP.xml.sparseX.GAP_2022_5_31_60_17_41_58_1222" sparseX_md5sum="a170de22556958133741264118eda340">
      <theta>  0.10000000000000000E+001 </theta>
      <descriptor>distance_2b cutoff=4.0 covariance_type=ard_se delta=0.5 theta_uniform=1.0 sparse_method=uniform               n_sparse=10 Z1=13 Z2=9</descriptor>
      <permutation i="1">1  </permutation>
      <sparseX i="1" alpha="-900406.49411265133" sparseCutoff="1.0000000000000000"/>
      <sparseX i="2" alpha="-903943.66317816149" sparseCutoff=".11338000543458182E-001"/>
      <sparseX i="3" alpha="63209.683818094934" sparseCutoff=".43542177365140844"/>
      <sparseX i="4" alpha="818151.85247440112" sparseCutoff="1.0000000000000000"/>
      <sparseX i="5" alpha="-38100.828991587216" sparseCutoff="1.0000000000000000"/>
      <sparseX i="6" alpha="-186990.60145310985" sparseCutoff="1.0000000000000000"/>
      <sparseX i="7" alpha="256825.95676586416" sparseCutoff="1.0000000000000000"/>
      <sparseX i="8" alpha="65257.996440237774" sparseCutoff="1.0000000000000000"/>
      <sparseX i="9" alpha="-72261.271707577063" sparseCutoff="1.0000000000000000"/>
      <sparseX i="10" alpha="40284.081101118180" sparseCutoff="1.0000000000000000"/>
    </gpCoordinates>
    <gpCoordinates label="GAP_2022_5_31_60_17_41_58_1223" dimensions="1" signal_variance=".50000000000000000" signal_mean=".00000000000000000E+000" sparsified="T" n_permutations="1" covariance_type="1" n_sparseX="10" sparseX_filename="GAP.xml.sparseX.GAP_2022_5_31_60_17_41_58_1223" sparseX_md5sum="c13032b6f9add66dc009e255288f1422">
      <theta>  0.10000000000000000E+001 </theta>
      <descriptor>distance_2b cutoff=4.0 covariance_type=ard_se delta=0.5 theta_uniform=1.0 sparse_method=uniform               n_sparse=10 Z1=9 Z2=9</descriptor>
      <permutation i="1">1  </permutation>
      <sparseX i="1" alpha="-205377.44719655500" sparseCutoff="1.0000000000000000"/>
      <sparseX i="2" alpha="-26286.312387701251" sparseCutoff=".62946604880126678"/>
      <sparseX i="3" alpha="91318.552393437887" sparseCutoff="1.0000000000000000"/>
      <sparseX i="4" alpha="-69114.736846078624" sparseCutoff="1.0000000000000000"/>
      <sparseX i="5" alpha="204211.86511336410" sparseCutoff="1.0000000000000000"/>
      <sparseX i="6" alpha="46856.690220785451" sparseCutoff=".13901097112398170"/>
      <sparseX i="7" alpha="91780.651327702217" sparseCutoff="1.0000000000000000"/>
      <sparseX i="8" alpha="-9985.3257541525199" sparseCutoff="1.0000000000000000"/>
      <sparseX i="9" alpha="-93598.937019631921" sparseCutoff="1.0000000000000000"/>
      <sparseX i="10" alpha="798.45353952053949" sparseCutoff="1.0000000000000000"/>
    </gpCoordinates>
  </gpSparse>
  <command_line><![CDATA[ energy_parameter_name=energy force_parameter_name=forces do_copy_at_file=F sparse_separate_file=T gp_file=GAP.xml at_file=Training_set.xyz default_sigma={0.008 0.04 0 0} gap={distance_2b cutoff=4.0 covariance_type=ard_se delta=0.5 theta_uniform=1.0 sparse_method=uniform add_species=T n_sparse=10}]]></command_line>
</GAP_params>
</GAP_2022_5_31_60_17_41_58_122>
